tensor_name:  generator/g_h2/biases
[-0.0157972   0.04165548 -0.01880923 -0.03505158  0.01307116 -0.05577646
 -0.08109488  0.03652355  0.04057266  0.03710994  0.02336699  0.0172925
  0.02036523 -0.08019519  0.00301259  0.00783034 -0.03081388 -0.01522115
 -0.04497654  0.04314765  0.05528747 -0.0183733  -0.02239695  0.05925879
 -0.05197465 -0.03158008  0.01399934  0.07336813 -0.02803743 -0.02196515
  0.06083507  0.03715037  0.02632067  0.01115823 -0.04333148  0.01120062
  0.0888803   0.05213374 -0.01639757 -0.0055851  -0.000619    0.10784195
 -0.03486747 -0.01279091  0.06568193  0.03759589  0.07047131 -0.0050935
  0.00800556 -0.04650465 -0.00430333  0.00161892 -0.0323747  -0.02910599
  0.03994193  0.07944381 -0.03617318 -0.03470674  0.07412259  0.01402871
  0.03906121  0.03590698  0.00876022 -0.02980298  0.04723426  0.01950479
  0.01546683 -0.00442006  0.01598726  0.02120309  0.01843351 -0.08476759
  0.00329416 -0.05550016  0.00444365  0.00410674 -0.06726785  0.00831231
  0.07802347  0.04153524  0.00617028  0.00892189 -0.05069131  0.03158915
  0.09050575  0.01001341 -0.02941553  0.07856373 -0.02950317 -0.00374407
 -0.06649076  0.02020961  0.07225212  0.01964457  0.01834254 -0.01995084
  0.01610062 -0.03852597  0.01936362  0.07001431  0.07401787  0.02577131
  0.02763798  0.0223146   0.01250899 -0.0779877  -0.05815443  0.00250199
  0.01534361  0.02314952 -0.02545862  0.01765502 -0.00441128  0.09049346
  0.01815259  0.01143987  0.03937376  0.03453921  0.06226432 -0.05536227
  0.02463057 -0.02260684 -0.00172149  0.08200032  0.03119516 -0.04140379
 -0.0082171  -0.04742032]
