tensor_name:  generator/g_h1/biases
[-0.03543734 -0.01863584  0.00667909  0.0113161  -0.00719433  0.0035692
 -0.00596951 -0.01744834  0.00210301  0.00605504 -0.00318404 -0.0089754
  0.02025239 -0.00634595  0.0018674  -0.0213714  -0.00032042  0.02505405
 -0.00148762  0.0062375   0.01451636  0.00969558  0.00352309 -0.01965708
  0.01684261 -0.02537973  0.00104078 -0.01701997  0.03247214  0.01334036
 -0.00860909 -0.01030669  0.000607    0.01122998 -0.01296757  0.0197028
 -0.00902262 -0.00220543 -0.00997659  0.0181452   0.01446677 -0.02074678
  0.00317796  0.00351465  0.00193162  0.02723616 -0.0011146  -0.02113262
 -0.01854752 -0.00765722 -0.00250524  0.01647449 -0.01127303  0.00990486
  0.00995062 -0.0015361   0.00090699 -0.02909756 -0.02530112  0.0038728
  0.00668732 -0.00831842 -0.00642813  0.01451227 -0.00607547 -0.01419337
 -0.01443323 -0.00268548  0.00809358 -0.01422818 -0.0764977   0.02716586
  0.00446444  0.01117796 -0.01017679 -0.0018934   0.00199556  0.00543089
  0.02970028 -0.01777888  0.02780127 -0.00226217  0.01529091 -0.00732753
  0.00855464 -0.0132818  -0.00080971  0.00630146  0.03746023  0.01601738
  0.00996327 -0.00656259 -0.01402525  0.0054527  -0.00858417  0.01421523
  0.01143352 -0.01927798 -0.01801876 -0.02183155  0.01074233  0.00093096
 -0.00790514 -0.00756716 -0.00040767 -0.01110897  0.00787779 -0.00298452
  0.00691181 -0.00998822  0.00779002  0.02517457  0.0010077  -0.01124521
 -0.00535023  0.01763913 -0.004976    0.00390827 -0.0033807  -0.04388119
  0.00966106  0.01668028 -0.02628052  0.02059087 -0.01180204 -0.02094726
 -0.0008482   0.01557055 -0.0076819  -0.00645441  0.01407255 -0.01293059
  0.01918803 -0.0112718   0.00156459 -0.00335917  0.02216453  0.05408449
  0.01389079  0.00995679  0.01524898 -0.02581579  0.03565545 -0.00329391
  0.00383175  0.00846978 -0.02080867  0.03003749 -0.00101988  0.01760704
 -0.0109808   0.00038766 -0.01635777  0.00872283 -0.04058563 -0.00870696
 -0.00864332  0.00792912 -0.00278712 -0.00358442  0.01697848  0.02516966
  0.02700533  0.00520525  0.00073104  0.00670104  0.00087493 -0.04146921
 -0.00328223  0.00932489  0.01846092  0.02675177  0.00363054 -0.0061841
  0.00190441  0.01468968  0.01709402 -0.0026184   0.00849879 -0.00265006
 -0.01059555  0.02732746 -0.00175802  0.01311203 -0.00136008 -0.01379405
  0.00618956 -0.00053497 -0.0080117   0.00421342  0.02722568 -0.02328531
 -0.02205455 -0.00551835 -0.00520009  0.04013192 -0.00705947  0.00393921
  0.00483602 -0.01579823 -0.00019938 -0.01432951  0.00627001 -0.00246389
 -0.00485346  0.01022429  0.01107017  0.02950124 -0.00591445 -0.00240707
  0.00772279  0.00869757  0.00268257 -0.0053665   0.00997342 -0.0005577
 -0.02906751 -0.00444443  0.00787934 -0.01307933 -0.01338859  0.00027991
  0.00620809 -0.01944725  0.01249363  0.00202967  0.00291428  0.00506237
 -0.01157116  0.00651476 -0.01251308 -0.00049121  0.01278373  0.01086123
 -0.01655644  0.00148254  0.01286922 -0.02169807  0.00562427 -0.01403429
  0.01142049 -0.00510556  0.01676653  0.00549972  0.00331959  0.001148
  0.00684795 -0.00125061 -0.00506424  0.01096317  0.01001552  0.01939699
 -0.011629   -0.00807147 -0.00012971 -0.0047639 ]
